<?xml version="1.0"?>
<opencv_storage>
<stage1>
  <maxWeakCount>14</maxWeakCount>
  <stageThreshold>-8.4959316253662109e-01</stageThreshold>
  <weakClassifiers>
    <_>
      <internalNodes>
        0 -1 72091 -8.5406180005520582e-04</internalNodes>
      <leafValues>
        -2.9680076241493225e-01 5.0346362590789795e-01</leafValues></_>
    <_>
      <internalNodes>
        0 -1 23298 -8.1986993551254272e-02</internalNodes>
      <leafValues>
        6.7207360267639160e-01 -1.7531639337539673e-01</leafValues></_>
    <_>
      <internalNodes>
        0 -1 72093 1.0445676743984222e-03</internalNodes>
      <leafValues>
        2.4100208282470703e-01 -5.4773944616317749e-01</leafValues></_>
    <_>
      <internalNodes>
        0 -1 123663 5.7924360036849976e-02</internalNodes>
      <leafValues>
        -1.8716402351856232e-01 6.4629185199737549e-01</leafValues></_>
    <_>
      <internalNodes>
        0 -1 7189 -6.4991869032382965e-02</internalNodes>
      <leafValues>
        6.7125719785690308e-01 -2.0823900401592255e-01</leafValues></_>
    <_>
      <internalNodes>
        0 -1 61961 4.7670226544141769e-02</internalNodes>
      <leafValues>
        -1.1899203807115555e-01 8.4215927124023438e-01</leafValues></_>
    <_>
      <internalNodes>
        0 -1 80017 9.9578150548040867e-04</internalNodes>
      <leafValues>
        1.9390639662742615e-01 -5.0218367576599121e-01</leafValues></_>
    <_>
      <internalNodes>
        0 -1 38791 -9.0757533907890320e-02</internalNodes>
      <leafValues>
        5.2592432498931885e-01 -1.6271111369132996e-01</leafValues></_>
    <_>
      <internalNodes>
        0 -1 72672 4.9320422112941742e-02</internalNodes>
      <leafValues>
        -1.5575486421585083e-01 5.2507150173187256e-01</leafValues></_>
    <_>
      <internalNodes>
        0 -1 71470 4.9079999327659607e-02</internalNodes>
      <leafValues>
        -8.3145692944526672e-02 7.3786723613739014e-01</leafValues></_>
    <_>
      <internalNodes>
        0 -1 6561 -4.7324702143669128e-02</internalNodes>
      <leafValues>
        6.6987562179565430e-01 -9.6120268106460571e-02</leafValues></_>
    <_>
      <internalNodes>
        0 -1 6627 7.2960346937179565e-02</internalNodes>
      <leafValues>
        -1.1487662047147751e-01 7.4220728874206543e-01</leafValues></_>
    <_>
      <internalNodes>
        0 -1 120822 -7.7598250936716795e-04</internalNodes>
      <leafValues>
        -5.1331543922424316e-01 1.5461549162864685e-01</leafValues></_>
    <_>
      <internalNodes>
        0 -1 120822 8.2354468759149313e-04</internalNodes>
      <leafValues>
        1.6745828092098236e-01 -4.5722523331642151e-01</leafValues></_></weakClassifiers></stage1>
</opencv_storage>
